{
  "layers": [
    {
      "neurons": [
        {
          "weights": [
            0.0018864445597204767,
            -0.050772389542854054,
            0.17335597263120228
          ],
          "preparedWeightChanges": [
            4.161085848180722E-05,
            4.3398427026496005E-05,
            4.137912392464532E-05
          ],
          "lastWeightChanges": [
            4.161085848180722E-05,
            4.3398427026496005E-05,
            4.137912392464532E-05
          ],
          "bias": -0.6488951205028715,
          "preparedBiasChange": 0.00012638840943294855,
          "lastBiasChange": 0.00012638840943294855,
          "delta": -5.298235404025232E-05,
          "output": 0
        },
        {
          "weights": [
            0.19907560908740193,
            0.07135506896620182,
            -0.25027523913122024
          ],
          "preparedWeightChanges": [
            -2.0195603377653717E-05,
            -2.442572019361134E-05,
            -3.217787483881968E-05
          ],
          "lastWeightChanges": [
            -2.0195603377653717E-05,
            -2.442572019361134E-05,
            -3.217787483881968E-05
          ],
          "bias": 0.8561556308322124,
          "preparedBiasChange": -7.679919841008473E-05,
          "lastBiasChange": -7.679919841008473E-05,
          "delta": 6.965221226795854E-05,
          "output": 0
        },
        {
          "weights": [
            0.07100961669550475,
            -0.13300991491910158,
            -0.19293638629206886
          ],
          "preparedWeightChanges": [
            -3.507857445002703E-05,
            -4.84365541830918E-05,
            -7.751040233938946E-05
          ],
          "lastWeightChanges": [
            -3.507857445002703E-05,
            -4.84365541830918E-05,
            -7.751040233938946E-05
          ],
          "bias": 0.8708415835768091,
          "preparedBiasChange": -0.00016102553097250828,
          "lastBiasChange": -0.00016102553097250828,
          "delta": 0.0001995200123344641,
          "output": 0
        },
        {
          "weights": [
            -0.0849798289481197,
            -0.008790833334663267,
            -0.2513241509957813
          ],
          "preparedWeightChanges": [
            2.9966482374373227E-05,
            2.9454261986335356E-05,
            2.3326742348166343E-05
          ],
          "lastWeightChanges": [
            2.9966482374373227E-05,
            2.9454261986335356E-05,
            2.3326742348166343E-05
          ],
          "bias": -0.6770243711381061,
          "preparedBiasChange": 8.274748670887494E-05,
          "lastBiasChange": 8.274748670887494E-05,
          "delta": -1.4641338255879121E-05,
          "output": 0
        }
      ]
    },
    {
      "neurons": [
        {
          "weights": [
            0.014621109824916878,
            0.0950161257502698,
            -0.21929948985078349,
            -0.15633045039434473
          ],
          "preparedWeightChanges": [
            0,
            0,
            0,
            0
          ],
          "lastWeightChanges": [
            0,
            0,
            0,
            0
          ],
          "bias": 0.3639599531523984,
          "preparedBiasChange": -0.0008820778287745156,
          "lastBiasChange": -0.0008820778287745156,
          "delta": 0.0004074193467020427,
          "output": 0
        },
        {
          "weights": [
            0.13398284808918037,
            0.15849323496617995,
            -0.0785094969107348,
            -0.08703574344377765
          ],
          "preparedWeightChanges": [
            0,
            0,
            0,
            0
          ],
          "lastWeightChanges": [
            0,
            0,
            0,
            0
          ],
          "bias": 0.2998117045289291,
          "preparedBiasChange": -0.0007106818418112876,
          "lastBiasChange": -0.0007106818418112876,
          "delta": 0.0007830448034979884,
          "output": 0
        },
        {
          "weights": [
            0.228430936801448,
            0.24407896608769847,
            -0.14800371783692562,
            -0.05943702990628641
          ],
          "preparedWeightChanges": [
            0,
            0,
            0,
            0
          ],
          "lastWeightChanges": [
            0,
            0,
            0,
            0
          ],
          "bias": -0.5360912879076746,
          "preparedBiasChange": 0.0010181475425031284,
          "lastBiasChange": 0.0010181475425031284,
          "delta": -0.0006994702599060475,
          "output": 0
        },
        {
          "weights": [
            -0.01464599872224312,
            -0.2024252984916909,
            0.14192797983620686,
            0.16388518429076543
          ],
          "preparedWeightChanges": [
            0,
            0,
            0,
            0
          ],
          "lastWeightChanges": [
            0,
            0,
            0,
            0
          ],
          "bias": -0.9904626437068451,
          "preparedBiasChange": -0.00021334609676521645,
          "lastBiasChange": -0.00021334609676521645,
          "delta": 0.000348431952011274,
          "output": 0
        },
        {
          "weights": [
            0.0009660158543689512,
            0.1389007856552027,
            0.18511880744952652,
            0.0173766334854889
          ],
          "preparedWeightChanges": [
            0,
            0,
            0,
            0
          ],
          "lastWeightChanges": [
            0,
            0,
            0,
            0
          ],
          "bias": 0.6076548536298426,
          "preparedBiasChange": -0.0012386133194021503,
          "lastBiasChange": -0.0012386133194021503,
          "delta": 0.0010661633006401297,
          "output": 0
        }
      ]
    },
    {
      "neurons": [
        {
          "weights": [
            0.09559290918782021,
            0.165514423938242,
            -0.1234166176865886,
            -0.007544572119388998,
            0.10654925315480179
          ],
          "preparedWeightChanges": [
            0,
            0,
            0,
            0,
            0
          ],
          "lastWeightChanges": [
            0,
            0,
            0,
            0,
            0
          ],
          "bias": -0.6724219184318767,
          "preparedBiasChange": -0.0051919484408276435,
          "lastBiasChange": -0.0051919484408276435,
          "delta": 0.002566834254755701,
          "output": 0
        },
        {
          "weights": [
            0.14074428281315804,
            0.14966748370773508,
            -0.060547637664967985,
            0.12281135906130602,
            0.18813257242465975
          ],
          "preparedWeightChanges": [
            0,
            0,
            0,
            0,
            0
          ],
          "lastWeightChanges": [
            0,
            0,
            0,
            0,
            0
          ],
          "bias": -0.2727958600577989,
          "preparedBiasChange": -0.00328115896761383,
          "lastBiasChange": -0.00328115896761383,
          "delta": 0.001969250456237074,
          "output": 0
        },
        {
          "weights": [
            -0.20399190506618092,
            0.013073833316133265,
            0.08111927021812615,
            0.02462743328634065,
            0.0550557178468703
          ],
          "preparedWeightChanges": [
            0,
            0,
            0,
            0,
            0
          ],
          "lastWeightChanges": [
            0,
            0,
            0,
            0,
            0
          ],
          "bias": 0.7586034790561297,
          "preparedBiasChange": 0.0003876104612407486,
          "lastBiasChange": 0.0003876104612407486,
          "delta": 0.0008539916409735851,
          "output": 0
        },
        {
          "weights": [
            0.023705907759119738,
            0.06686111205111311,
            -0.1595085882160387,
            0.11569549649287736,
            0.14113813633617855
          ],
          "preparedWeightChanges": [
            0,
            0,
            0,
            0,
            0
          ],
          "lastWeightChanges": [
            0,
            0,
            0,
            0,
            0
          ],
          "bias": 0.1981171971300591,
          "preparedBiasChange": 5.4905659256816974E-05,
          "lastBiasChange": 5.4905659256816974E-05,
          "delta": 0.0019081954514312304,
          "output": 0
        },
        {
          "weights": [
            -0.08311185069992758,
            -0.21675404602044918,
            -0.04444570922965449,
            0.04759230106025575,
            -0.05520742796603936
          ],
          "preparedWeightChanges": [
            0,
            0,
            0,
            0,
            0
          ],
          "lastWeightChanges": [
            0,
            0,
            0,
            0,
            0
          ],
          "bias": -0.9509514199639872,
          "preparedBiasChange": -0.003920675929971677,
          "lastBiasChange": -0.003920675929971677,
          "delta": 0.0008366814186254827,
          "output": 0
        },
        {
          "weights": [
            0.12572032416971418,
            0.15989731830074327,
            0.01332387666372764,
            -0.2346693016517299,
            0.22920329728126682
          ],
          "preparedWeightChanges": [
            0,
            0,
            0,
            0,
            0
          ],
          "lastWeightChanges": [
            0,
            0,
            0,
            0,
            0
          ],
          "bias": -0.6386189279758806,
          "preparedBiasChange": -0.0013684886117055473,
          "lastBiasChange": -0.0013684886117055473,
          "delta": 0.0006633570811895319,
          "output": 0
        }
      ]
    },
    {
      "neurons": [
        {
          "weights": [
            0.03190985265276852,
            0.1790350752086542,
            0.05641500340142053,
            0.1867052726152843,
            -0.16231334601171005,
            -0.15558851762003661
          ],
          "preparedWeightChanges": [
            0,
            0,
            0,
            0,
            0,
            0
          ],
          "lastWeightChanges": [
            0,
            0,
            0,
            0,
            0,
            0
          ],
          "bias": 0.8774929225825713,
          "preparedBiasChange": -0.009200032387370726,
          "lastBiasChange": -0.009200032387370726,
          "delta": 0.011607213260227466,
          "output": 0
        },
        {
          "weights": [
            0.06775161103240757,
            -0.18570862614349865,
            0.04463840638969019,
            -0.24843339342551,
            -0.1211458534799264,
            -0.16723408592736072
          ],
          "preparedWeightChanges": [
            0,
            0,
            0,
            0,
            0,
            0
          ],
          "lastWeightChanges": [
            0,
            0,
            0,
            0,
            0,
            0
          ],
          "bias": 0.6775728407118929,
          "preparedBiasChange": -0.00807171917207435,
          "lastBiasChange": -0.00807171917207435,
          "delta": 0.002261840354153119,
          "output": 0
        },
        {
          "weights": [
            0.19591029800749865,
            -0.16214548908739607,
            -0.08858710030959319,
            0.2005155214343758,
            0.23784743947342385,
            0.22989741269494285
          ],
          "preparedWeightChanges": [
            0,
            0,
            0,
            0,
            0,
            0
          ],
          "lastWeightChanges": [
            0,
            0,
            0,
            0,
            0,
            0
          ],
          "bias": -0.45841528927079367,
          "preparedBiasChange": -0.011731680280944057,
          "lastBiasChange": -0.011731680280944057,
          "delta": 0.005045280960152526,
          "output": 0
        },
        {
          "weights": [
            -0.13215161318990942,
            -0.17443272141946142,
            0.07330329917525097,
            0.22426497865201206,
            -0.15684801824709774,
            -0.045125088326225554
          ],
          "preparedWeightChanges": [
            0,
            0,
            0,
            0,
            0,
            0
          ],
          "lastWeightChanges": [
            0,
            0,
            0,
            0,
            0,
            0
          ],
          "bias": -0.9390482900938899,
          "preparedBiasChange": 0.010316603983826817,
          "lastBiasChange": 0.010316603983826817,
          "delta": -0.002388328427410977,
          "output": 0
        },
        {
          "weights": [
            0.2470910348915919,
            -0.2217647458760835,
            -0.07260828177566095,
            -0.21932260341445106,
            0.033870536034866505,
            0.11265084606718778
          ],
          "preparedWeightChanges": [
            0,
            0,
            0,
            0,
            0,
            0
          ],
          "lastWeightChanges": [
            0,
            0,
            0,
            0,
            0,
            0
          ],
          "bias": -0.6199097802107684,
          "preparedBiasChange": 0.0035379599838493594,
          "lastBiasChange": 0.0035379599838493594,
          "delta": 0.0016638646747514996,
          "output": 0
        },
        {
          "weights": [
            0.1260206426382161,
            0.24463127134117824,
            0.08700063514383538,
            -0.020825541937176867,
            0.24607992940399792,
            0.20315157666483502
          ],
          "preparedWeightChanges": [
            0,
            0,
            0,
            0,
            0,
            0
          ],
          "lastWeightChanges": [
            0,
            0,
            0,
            0,
            0,
            0
          ],
          "bias": 0.9924120639665831,
          "preparedBiasChange": -0.008874263279085817,
          "lastBiasChange": -0.008874263279085817,
          "delta": 0.0052926636049993245,
          "output": 0
        },
        {
          "weights": [
            0.19444362164681944,
            0.12224974291038221,
            -0.21832065259493919,
            -0.1732998557497281,
            -0.0351736130123835,
            -0.18199234359524788
          ],
          "preparedWeightChanges": [
            0,
            0,
            0,
            0,
            0,
            0
          ],
          "lastWeightChanges": [
            0,
            0,
            0,
            0,
            0,
            0
          ],
          "bias": -0.6913809932712711,
          "preparedBiasChange": -0.002291922845465478,
          "lastBiasChange": -0.002291922845465478,
          "delta": -0.0017431705870691958,
          "output": 0
        }
      ]
    },
    {
      "neurons": [
        {
          "weights": [
            0.03786581325711019,
            -0.0015155813896635395,
            0.06280835522935185,
            -0.2225167411251537,
            0.2493058845863239,
            0.19409213654887497,
            -0.08593853415732203
          ],
          "preparedWeightChanges": [
            0,
            0,
            0,
            0,
            0,
            0,
            0
          ],
          "lastWeightChanges": [
            0,
            0,
            0,
            0,
            0,
            0,
            0
          ],
          "bias": -0.41159188902465543,
          "preparedBiasChange": -0.006728336386336553,
          "lastBiasChange": -0.006728336386336553,
          "delta": 0.004626118927038079,
          "output": 0
        },
        {
          "weights": [
            0.2331117042261696,
            0.21244029396327224,
            0.24453467223538772,
            0.13953657070618897,
            0.06248953068279173,
            0.07066057614081567,
            -0.21394388026741515
          ],
          "preparedWeightChanges": [
            0,
            0,
            0,
            0,
            0,
            0,
            0
          ],
          "lastWeightChanges": [
            0,
            0,
            0,
            0,
            0,
            0,
            0
          ],
          "bias": 0.41001760769983947,
          "preparedBiasChange": -0.008728708010190253,
          "lastBiasChange": -0.008728708010190253,
          "delta": 0.013395936749707547,
          "output": 0
        },
        {
          "weights": [
            0.22088920998894107,
            0.09498361048520709,
            -0.029884931994548503,
            -0.11593266500436358,
            -0.18011034463071746,
            -0.1567767604285743,
            0.0744122645465714
          ],
          "preparedWeightChanges": [
            0,
            0,
            0,
            0,
            0,
            0,
            0
          ],
          "lastWeightChanges": [
            0,
            0,
            0,
            0,
            0,
            0,
            0
          ],
          "bias": -0.46974875756470813,
          "preparedBiasChange": -0.025620015782900792,
          "lastBiasChange": -0.025620015782900792,
          "delta": 0.01558296572757149,
          "output": 0
        },
        {
          "weights": [
            0.24176751006942593,
            -0.22325416396989214,
            0.20098976229829235,
            -0.07659523483672889,
            -0.04668246432984363,
            0.041623951770190126,
            0.14756483440174017
          ],
          "preparedWeightChanges": [
            0,
            0,
            0,
            0,
            0,
            0,
            0
          ],
          "lastWeightChanges": [
            0,
            0,
            0,
            0,
            0,
            0,
            0
          ],
          "bias": -0.1279988345585646,
          "preparedBiasChange": -0.0049991411674527066,
          "lastBiasChange": -0.0049991411674527066,
          "delta": 0.011320805969481682,
          "output": 0
        },
        {
          "weights": [
            -0.11313274473097767,
            0.20656671396296783,
            -0.04077477836551832,
            0.029750835513580043,
            0.11458336299498723,
            -0.24680586228929732,
            0.03456465144854254
          ],
          "preparedWeightChanges": [
            0,
            0,
            0,
            0,
            0,
            0,
            0
          ],
          "lastWeightChanges": [
            0,
            0,
            0,
            0,
            0,
            0,
            0
          ],
          "bias": 0.43908873714490626,
          "preparedBiasChange": 0.021078665700724936,
          "lastBiasChange": 0.021078665700724936,
          "delta": -0.0050340105796583025,
          "output": 0
        },
        {
          "weights": [
            0.07865611479089413,
            -0.2274471539898995,
            -0.23848043288499138,
            0.12456034118056314,
            -0.015360214172564557,
            -0.14345664130219102,
            -0.1093379540179567
          ],
          "preparedWeightChanges": [
            0,
            0,
            0,
            0,
            0,
            0,
            0
          ],
          "lastWeightChanges": [
            0,
            0,
            0,
            0,
            0,
            0,
            0
          ],
          "bias": 0.5487869655546571,
          "preparedBiasChange": 0.036255267668567535,
          "lastBiasChange": 0.036255267668567535,
          "delta": -0.009377831424424573,
          "output": 0
        },
        {
          "weights": [
            0.15838750191423462,
            0.005003054745031099,
            -0.18920986258388026,
            -0.01828346623493521,
            0.24471131898216497,
            0.1839403214091157,
            -0.17640198018699976
          ],
          "preparedWeightChanges": [
            0,
            0,
            0,
            0,
            0,
            0,
            0
          ],
          "lastWeightChanges": [
            0,
            0,
            0,
            0,
            0,
            0,
            0
          ],
          "bias": 0.023003482106158067,
          "preparedBiasChange": -0.009932031876443578,
          "lastBiasChange": -0.009932031876443578,
          "delta": 0.009851351485557394,
          "output": 0
        },
        {
          "weights": [
            0.17407215406376503,
            -0.15853270814220083,
            -0.21428425119457964,
            0.22256004855621608,
            0.24310237425058262,
            0.24065670067940687,
            -0.09984973904204078
          ],
          "preparedWeightChanges": [
            0,
            0,
            0,
            0,
            0,
            0,
            0
          ],
          "lastWeightChanges": [
            0,
            0,
            0,
            0,
            0,
            0,
            0
          ],
          "bias": -0.2603618093111967,
          "preparedBiasChange": 0.006109070313292789,
          "lastBiasChange": 0.006109070313292789,
          "delta": 0.00423939832394382,
          "output": 0
        }
      ]
    },
    {
      "neurons": [
        {
          "weights": [
            -0.18512454043846788,
            -0.13379092252989808,
            0.0026693154371666417,
            0.1059228167198239,
            -0.138564645493666,
            0.006305284219004836,
            0.0026633251703639393,
            0.21769507227823842
          ],
          "preparedWeightChanges": [
            0,
            0,
            0,
            0,
            0,
            0,
            0,
            0
          ],
          "lastWeightChanges": [
            0,
            0,
            0,
            0,
            0,
            0,
            0,
            0
          ],
          "bias": -0.278530415381828,
          "preparedBiasChange": 0.0023915116057549855,
          "lastBiasChange": 0.0023915116057549855,
          "delta": 0.011222884194172009,
          "output": 0
        },
        {
          "weights": [
            0.05155635848713869,
            0.05541122020474226,
            -0.20266319064081795,
            -0.16829632754358292,
            0.19985192336600827,
            0.23670127754411718,
            0.13522415137161692,
            0.1360837900480646
          ],
          "preparedWeightChanges": [
            0,
            0,
            0,
            0,
            0,
            0,
            0,
            0
          ],
          "lastWeightChanges": [
            0,
            0,
            0,
            0,
            0,
            0,
            0,
            0
          ],
          "bias": -1.0482963477839793,
          "preparedBiasChange": 0.09613954187417825,
          "lastBiasChange": 0.09613954187417825,
          "delta": -0.03882719877068838,
          "output": 0
        },
        {
          "weights": [
            0.015017263249036517,
            0.19831448092512527,
            -0.019166185645929618,
            -0.08415169936332464,
            0.1336142757831208,
            -0.047073066140093406,
            0.1329686941499676,
            -0.23541735205120284
          ],
          "preparedWeightChanges": [
            0,
            0,
            0,
            0,
            0,
            0,
            0,
            0
          ],
          "lastWeightChanges": [
            0,
            0,
            0,
            0,
            0,
            0,
            0,
            0
          ],
          "bias": -0.19107861305019885,
          "preparedBiasChange": 0.009441002939255289,
          "lastBiasChange": 0.009441002939255289,
          "delta": -0.01831500127437741,
          "output": 0
        },
        {
          "weights": [
            0.023116071137188055,
            0.21747838890528232,
            0.062004602892326455,
            0.1754563352677302,
            0.08799941411148732,
            0.12240258505214124,
            0.07003181465902913,
            0.059684881619031016
          ],
          "preparedWeightChanges": [
            0,
            0,
            0,
            0,
            0,
            0,
            0,
            0
          ],
          "lastWeightChanges": [
            0,
            0,
            0,
            0,
            0,
            0,
            0,
            0
          ],
          "bias": 0.3508932261689911,
          "preparedBiasChange": -0.0206340437765457,
          "lastBiasChange": -0.0206340437765457,
          "delta": 0.05217721977139899,
          "output": 0
        },
        {
          "weights": [
            0.10387404326064237,
            0.034739229262219395,
            -0.10870940534337861,
            -0.09791778230477022,
            -0.24766027042533284,
            -0.15690493486211865,
            -0.07870242527159976,
            -0.056845039504973716
          ],
          "preparedWeightChanges": [
            0,
            0,
            0,
            0,
            0,
            0,
            0,
            0
          ],
          "lastWeightChanges": [
            0,
            0,
            0,
            0,
            0,
            0,
            0,
            0
          ],
          "bias": -0.5118567790567211,
          "preparedBiasChange": 0.002651470900827078,
          "lastBiasChange": 0.002651470900827078,
          "delta": -0.008402610902583374,
          "output": 0
        },
        {
          "weights": [
            -0.22373878954618182,
            -0.13706109877073258,
            0.22422023069775676,
            -0.145233985686318,
            -0.09950840256619659,
            -0.16352374149184848,
            0.04483856111524559,
            -0.02436056256962965
          ],
          "preparedWeightChanges": [
            0,
            0,
            0,
            0,
            0,
            0,
            0,
            0
          ],
          "lastWeightChanges": [
            0,
            0,
            0,
            0,
            0,
            0,
            0,
            0
          ],
          "bias": -0.31141651467674947,
          "preparedBiasChange": -0.05180410198370756,
          "lastBiasChange": -0.05180410198370756,
          "delta": 0.014963602479145747,
          "output": 0
        },
        {
          "weights": [
            0.21065393810190908,
            0.14902715892485674,
            -0.01740519831301887,
            -0.20025761842273995,
            0.2229541225698563,
            -0.15314729344246317,
            0.15062660276918982,
            0.22954725403317588
          ],
          "preparedWeightChanges": [
            0,
            0,
            0,
            0,
            0,
            0,
            0,
            0
          ],
          "lastWeightChanges": [
            0,
            0,
            0,
            0,
            0,
            0,
            0,
            0
          ],
          "bias": -0.03153279885732324,
          "preparedBiasChange": -0.062130799036486196,
          "lastBiasChange": -0.062130799036486196,
          "delta": 0.03368479171795964,
          "output": 0
        },
        {
          "weights": [
            -0.001585643855661928,
            0.1261000232194085,
            0.21741180609325494,
            -0.07506577569295922,
            0.011671857797387941,
            -0.10983295825302272,
            0.11827056918678364,
            -0.2186498918890254
          ],
          "preparedWeightChanges": [
            0,
            0,
            0,
            0,
            0,
            0,
            0,
            0
          ],
          "lastWeightChanges": [
            0,
            0,
            0,
            0,
            0,
            0,
            0,
            0
          ],
          "bias": -1.0027603397055598,
          "preparedBiasChange": -0.01711089474951865,
          "lastBiasChange": -0.01711089474951865,
          "delta": 0.024975693799224184,
          "output": 0
        },
        {
          "weights": [
            -0.19302678152128439,
            -0.13706495444619327,
            0.1959747513504581,
            -0.11226125078381097,
            0.2445507259082751,
            -0.05954068471190552,
            -0.17560216734446688,
            0.10670748369614941
          ],
          "preparedWeightChanges": [
            0,
            0,
            0,
            0,
            0,
            0,
            0,
            0
          ],
          "lastWeightChanges": [
            0,
            0,
            0,
            0,
            0,
            0,
            0,
            0
          ],
          "bias": -0.7302747346518768,
          "preparedBiasChange": 0.050314541206436234,
          "lastBiasChange": 0.050314541206436234,
          "delta": -0.025586957507181953,
          "output": 0
        }
      ]
    },
    {
      "neurons": [
        {
          "weights": [
            0.13145845075205825,
            -0.08164994317649396,
            0.0669867914714789,
            -0.02447165561582504,
            -0.11938222584751537,
            -0.13764002331888303,
            -0.07943319498069268,
            0.10937787655712006,
            0.16065772269417428
          ],
          "preparedWeightChanges": [
            0,
            0,
            0,
            0,
            0,
            0,
            0,
            0,
            0
          ],
          "lastWeightChanges": [
            0,
            0,
            0,
            0,
            0,
            0,
            0,
            0,
            0
          ],
          "bias": 0.08694695428768684,
          "preparedBiasChange": 0.15898573817025127,
          "lastBiasChange": 0.15898573817025127,
          "delta": -0.05109302829672093,
          "output": 0
        },
        {
          "weights": [
            0.05413166168338229,
            0.06178510669236309,
            -0.20556211190091545,
            0.0014556149260400164,
            -0.22720752445850873,
            -0.15712161823507476,
            0.1728832185840622,
            0.06705493727561784,
            -0.0888827048888815
          ],
          "preparedWeightChanges": [
            0,
            0,
            0,
            0,
            0,
            0,
            0,
            0,
            0
          ],
          "lastWeightChanges": [
            0,
            0,
            0,
            0,
            0,
            0,
            0,
            0,
            0
          ],
          "bias": 0.26608379406384974,
          "preparedBiasChange": 0.03269717536351032,
          "lastBiasChange": 0.03269717536351032,
          "delta": 0.045219722087913666,
          "output": 0
        },
        {
          "weights": [
            0.10126704343187953,
            0.08405318895077946,
            -0.013504554873101676,
            -0.1308585106771712,
            0.23513169772230635,
            -0.012134657363470025,
            -0.13729560812343639,
            0.005861028682375813,
            0.07291518888572007
          ],
          "preparedWeightChanges": [
            0,
            0,
            0,
            0,
            0,
            0,
            0,
            0,
            0
          ],
          "lastWeightChanges": [
            0,
            0,
            0,
            0,
            0,
            0,
            0,
            0,
            0
          ],
          "bias": -0.015099610698578125,
          "preparedBiasChange": 0.20963370435109357,
          "lastBiasChange": 0.20963370435109357,
          "delta": -0.15395984354241937,
          "output": 0
        },
        {
          "weights": [
            -0.20786451360111335,
            0.2253445489217269,
            -0.13375336112629313,
            -0.054791040161992904,
            -0.2308318479828685,
            0.06119719720966982,
            -0.06677010809852282,
            -0.22711398823983686,
            -0.004517750933076131
          ],
          "preparedWeightChanges": [
            0,
            0,
            0,
            0,
            0,
            0,
            0,
            0,
            0
          ],
          "lastWeightChanges": [
            0,
            0,
            0,
            0,
            0,
            0,
            0,
            0,
            0
          ],
          "bias": 0.4821448613938323,
          "preparedBiasChange": 0.07670499630558017,
          "lastBiasChange": 0.07670499630558017,
          "delta": -0.06224257981746926,
          "output": 0
        },
        {
          "weights": [
            -0.24563258071226654,
            0.15229398124026788,
            -0.020490680947197,
            0.23243466251643125,
            -0.022781553572407715,
            0.039559454093482105,
            -0.23746466962036894,
            0.11147943062776672,
            0.17318227580896683
          ],
          "preparedWeightChanges": [
            0,
            0,
            0,
            0,
            0,
            0,
            0,
            0,
            0
          ],
          "lastWeightChanges": [
            0,
            0,
            0,
            0,
            0,
            0,
            0,
            0,
            0
          ],
          "bias": 0.044003837465925705,
          "preparedBiasChange": 0.08711473288922142,
          "lastBiasChange": 0.08711473288922142,
          "delta": 0.001922368824444933,
          "output": 0
        },
        {
          "weights": [
            -0.17833249267578707,
            0.12340437801247667,
            0.16328053754441463,
            -0.24461950245062797,
            -0.19962329671234977,
            -0.2025947381987212,
            0.18185461169660772,
            -0.052154697851349935,
            -0.009603353338131393
          ],
          "preparedWeightChanges": [
            0,
            0,
            0,
            0,
            0,
            0,
            0,
            0,
            0
          ],
          "lastWeightChanges": [
            0,
            0,
            0,
            0,
            0,
            0,
            0,
            0,
            0
          ],
          "bias": -1.0973448205569993,
          "preparedBiasChange": 0.1561722964333928,
          "lastBiasChange": 0.1561722964333928,
          "delta": -0.12660382618174174,
          "output": 0
        },
        {
          "weights": [
            0.24965558480455335,
            0.1647057763369315,
            -0.21353731232860002,
            -0.2438187103224074,
            0.09370042027146575,
            0.0787871127616554,
            -0.05446153218134378,
            0.09922892826107749,
            -0.017712537091091524
          ],
          "preparedWeightChanges": [
            0,
            0,
            0,
            0,
            0,
            0,
            0,
            0,
            0
          ],
          "lastWeightChanges": [
            0,
            0,
            0,
            0,
            0,
            0,
            0,
            0,
            0
          ],
          "bias": 0.7418073644876144,
          "preparedBiasChange": -0.0437979982267245,
          "lastBiasChange": -0.0437979982267245,
          "delta": 0.005032743303699029,
          "output": 0
        },
        {
          "weights": [
            0.1596484898634481,
            0.14999720682389905,
            -0.17842731179130605,
            0.056065465698980466,
            0.09695956685904394,
            0.19897306219161165,
            -0.14545613010202355,
            0.004060782610467051,
            0.14192304289523655
          ],
          "preparedWeightChanges": [
            0,
            0,
            0,
            0,
            0,
            0,
            0,
            0,
            0
          ],
          "lastWeightChanges": [
            0,
            0,
            0,
            0,
            0,
            0,
            0,
            0,
            0
          ],
          "bias": -0.6305583727416482,
          "preparedBiasChange": 0.15163947442409764,
          "lastBiasChange": 0.15163947442409764,
          "delta": -0.05484090381780468,
          "output": 0
        },
        {
          "weights": [
            -0.024669987743101085,
            0.0012249612487968964,
            0.08267875287340898,
            0.028054821434456312,
            0.08280892569236875,
            -0.08126889161359002,
            -0.18793598862268776,
            -0.13913385867566516,
            -0.10516774344964314
          ],
          "preparedWeightChanges": [
            0,
            0,
            0,
            0,
            0,
            0,
            0,
            0,
            0
          ],
          "lastWeightChanges": [
            0,
            0,
            0,
            0,
            0,
            0,
            0,
            0,
            0
          ],
          "bias": -0.5267219664779046,
          "preparedBiasChange": 0.11225867474950181,
          "lastBiasChange": 0.11225867474950181,
          "delta": -0.05501108673291007,
          "output": 0
        },
        {
          "weights": [
            0.1293425855130621,
            0.2353845897528271,
            0.03248936509829453,
            0.10272981755096922,
            0.10539624460758468,
            -0.16033835704919805,
            0.11583129356886784,
            -0.02667197062478957,
            -0.1112657577550345
          ],
          "preparedWeightChanges": [
            0,
            0,
            0,
            0,
            0,
            0,
            0,
            0,
            0
          ],
          "lastWeightChanges": [
            0,
            0,
            0,
            0,
            0,
            0,
            0,
            0,
            0
          ],
          "bias": 0.40230121287540993,
          "preparedBiasChange": 0.1019032908178552,
          "lastBiasChange": 0.1019032908178552,
          "delta": 0.016862374408339032,
          "output": 0
        }
      ]
    },
    {
      "neurons": [
        {
          "weights": [
            -0.15597901372517414,
            -0.0866935978814464,
            -0.12080803228114173,
            -0.038413002522854595,
            -0.1147881224121843,
            -0.0783296994996861,
            0.05183168980378272,
            -0.14278492815456584,
            -0.09157906930967191,
            -0.14859635890396142
          ],
          "preparedWeightChanges": [
            0,
            0,
            0,
            0,
            0,
            0,
            0,
            0,
            0,
            0
          ],
          "lastWeightChanges": [
            0,
            0,
            0,
            0,
            0,
            0,
            0,
            0,
            0,
            0
          ],
          "bias": 3.869454115019172,
          "preparedBiasChange": -0.7509942130272519,
          "lastBiasChange": -0.7509942130272519,
          "delta": -0.02722543579372838,
          "output": 0
        },
        {
          "weights": [
            -0.07220617091385936,
            0.05592225925341354,
            -0.20517559696695561,
            -0.08257758074094429,
            -0.001569376444243542,
            -0.16797297653647744,
            0.008407866236943673,
            -0.07662763601477612,
            -0.07503068811494423,
            0.016723101384343186
          ],
          "preparedWeightChanges": [
            0,
            0,
            0,
            0,
            0,
            0,
            0,
            0,
            0,
            0
          ],
          "lastWeightChanges": [
            0,
            0,
            0,
            0,
            0,
            0,
            0,
            0,
            0,
            0
          ],
          "bias": 0.8916996690217859,
          "preparedBiasChange": -0.579540515434188,
          "lastBiasChange": -0.579540515434188,
          "delta": 0.7664112944873354,
          "output": 0
        }
      ]
    }
  ],
  "activationFunctionType": "tanh",
  "epochs": 20,
  "momentum": 0.9,
  "batchSize": 20,
  "learningRate": 0.1,
  "numberOfInputs": 3,
  "numberOfOutputs": 2
}