{
  "layers": [
    {
      "neurons": [
        {
          "weights": [
            0.15197324024141548,
            0.36504568280144795,
            -0.66109445243198
          ],
          "preparedWeightChanges": [
            -1.4887787971976442E-05,
            -4.484744819918932E-05,
            -0.00011490848498253164
          ],
          "bias": 0.7120488924747603,
          "preparedBiasChange": -0.00017464372115369746,
          "delta": 0.00039711090878012293,
          "output": 0
        },
        {
          "weights": [
            0.18121372082748669,
            0.0688421909336998,
            -0.3390665021696893
          ],
          "preparedWeightChanges": [
            -2.163496285494635E-05,
            -3.816340246175653E-05,
            -7.516598577878507E-05
          ],
          "bias": 0.6455366309189532,
          "preparedBiasChange": -0.00013496435109548792,
          "delta": 0.00022057507962194614,
          "output": 0
        },
        {
          "weights": [
            0.2969390063158134,
            -0.16429635001195117,
            -0.3551331419550263
          ],
          "preparedWeightChanges": [
            -2.154951861640182E-06,
            -1.4648086798473874E-05,
            -4.4361541685452675E-05
          ],
          "bias": -0.872674079924651,
          "preparedBiasChange": -6.116458034556674E-05,
          "delta": 0.00016514378524582992,
          "output": 0
        },
        {
          "weights": [
            0.19731395334783572,
            0.28011804683281816,
            -0.41851597656557427
          ],
          "preparedWeightChanges": [
            -5.882908384970782E-06,
            -3.730077378596808E-05,
            -0.00011196750487660212
          ],
          "bias": 0.13158457919081573,
          "preparedBiasChange": -0.00015515118704754097,
          "delta": 0.00041535687822242856,
          "output": 0
        }
      ]
    },
    {
      "neurons": [
        {
          "weights": [
            0.11355614306570783,
            0.08606777891333578,
            0.23675506561377785,
            -0.15788865085127235
          ],
          "preparedWeightChanges": [
            0,
            0,
            0,
            0
          ],
          "bias": 0.9572483642802875,
          "preparedBiasChange": 0.0011497304060544263,
          "delta": -0.002121919430399329,
          "output": 0
        },
        {
          "weights": [
            0.08112220970500361,
            0.001879942720700023,
            -0.019975853278290406,
            -0.1332812327348074
          ],
          "preparedWeightChanges": [
            0,
            0,
            0,
            0
          ],
          "bias": 0.5525537114047046,
          "preparedBiasChange": -0.0010859707218161818,
          "delta": 0.002563768078897795,
          "output": 0
        },
        {
          "weights": [
            0.10844141075315017,
            0.13250692206551645,
            0.1643237953140977,
            -0.022163692522870232
          ],
          "preparedWeightChanges": [
            0,
            0,
            0,
            0
          ],
          "bias": 0.15300036742154055,
          "preparedBiasChange": -0.0015297308258879192,
          "delta": 0.0024141668347757027,
          "output": 0
        },
        {
          "weights": [
            0.12881310604457424,
            -0.11783600522570126,
            0.05534686930726601,
            0.11049775237240722
          ],
          "preparedWeightChanges": [
            0,
            0,
            0,
            0
          ],
          "bias": 0.0660899615963682,
          "preparedBiasChange": -0.0004010022220220236,
          "delta": 0.0013167997210610533,
          "output": 0
        },
        {
          "weights": [
            0.0008834673794375081,
            -0.15551833338361154,
            -0.1658280873279218,
            -0.2196664588850301
          ],
          "preparedWeightChanges": [
            0,
            0,
            0,
            0
          ],
          "bias": -0.11377085157248559,
          "preparedBiasChange": 0.0004914540021103325,
          "delta": -0.0015024391786594101,
          "output": 0
        }
      ]
    },
    {
      "neurons": [
        {
          "weights": [
            -0.2039656224446211,
            0.04195723486689723,
            -0.06375087043910793,
            0.014266034711276188,
            0.17836894277872933
          ],
          "preparedWeightChanges": [
            0,
            0,
            0,
            0,
            0
          ],
          "bias": -0.6888932282666768,
          "preparedBiasChange": -0.0018107003477104814,
          "delta": 0.00402553092555022,
          "output": 0
        },
        {
          "weights": [
            0.13110924529894685,
            -0.10103500231683021,
            -0.15357633955011907,
            -0.22523606264741908,
            0.15652533755941567
          ],
          "preparedWeightChanges": [
            0,
            0,
            0,
            0,
            0
          ],
          "bias": -0.48515375282834633,
          "preparedBiasChange": 0.0061676252350494,
          "delta": -0.012718093706657902,
          "output": 0
        },
        {
          "weights": [
            -0.05647744252648085,
            -0.21056122214559522,
            -0.06926892247016958,
            -0.05903665945354694,
            0.17151188357803593
          ],
          "preparedWeightChanges": [
            0,
            0,
            0,
            0,
            0
          ],
          "bias": -0.7509431210261936,
          "preparedBiasChange": 0.001042680120438127,
          "delta": -0.0020291384107216388,
          "output": 0
        },
        {
          "weights": [
            0.2033932257692298,
            0.12686676875542235,
            0.05134591148297579,
            -0.1324562169064098,
            -0.10141570859188945
          ],
          "preparedWeightChanges": [
            0,
            0,
            0,
            0,
            0
          ],
          "bias": 0.17641954534658358,
          "preparedBiasChange": 0.00029081010326612337,
          "delta": 0.0013912281385334057,
          "output": 0
        },
        {
          "weights": [
            0.01198807487356851,
            -0.09917752414437828,
            -0.035957749367671904,
            0.23072283388149123,
            -0.022538208762434397
          ],
          "preparedWeightChanges": [
            0,
            0,
            0,
            0,
            0
          ],
          "bias": -0.021380175693494617,
          "preparedBiasChange": 0.0020062734272245503,
          "delta": -0.005073413462522408,
          "output": 0
        },
        {
          "weights": [
            0.019074476449319366,
            0.0018958662412575933,
            0.20642152449880796,
            -0.23643193067350982,
            0.09261610025661815
          ],
          "preparedWeightChanges": [
            0,
            0,
            0,
            0,
            0
          ],
          "bias": -0.0459108957646164,
          "preparedBiasChange": -0.002754212515197234,
          "delta": 0.0015656362420953926,
          "output": 0
        }
      ]
    },
    {
      "neurons": [
        {
          "weights": [
            -0.18436918684019205,
            0.21575811201043338,
            -0.06165017551353674,
            -0.08789557723230476,
            0.22733216545420332,
            -0.01645807561765336
          ],
          "preparedWeightChanges": [
            0,
            0,
            0,
            0,
            0,
            0
          ],
          "bias": -0.8514256675727997,
          "preparedBiasChange": -0.006908076282335239,
          "delta": 0.012776330374234621,
          "output": 0
        },
        {
          "weights": [
            -0.046927629875451154,
            0.11031572258114614,
            0.0668892289124845,
            0.1886414373007796,
            0.01590809145286126,
            -0.0702333251574232
          ],
          "preparedWeightChanges": [
            0,
            0,
            0,
            0,
            0,
            0
          ],
          "bias": 0.2624401304108972,
          "preparedBiasChange": -0.010451130651230881,
          "delta": 0.017133954347411044,
          "output": 0
        },
        {
          "weights": [
            0.07937158380140158,
            0.049786943616246304,
            -0.11922131309715162,
            -0.09653322764045244,
            0.027197368339261674,
            0.17849059446178872
          ],
          "preparedWeightChanges": [
            0,
            0,
            0,
            0,
            0,
            0
          ],
          "bias": -0.8718994442568172,
          "preparedBiasChange": -0.010170853399377648,
          "delta": 0.0052093401328594125,
          "output": 0
        },
        {
          "weights": [
            0.19265806160059668,
            -0.24772204016229232,
            0.027546466923107638,
            0.16240582750756566,
            0.15038641141745562,
            0.17150320644560418
          ],
          "preparedWeightChanges": [
            0,
            0,
            0,
            0,
            0,
            0
          ],
          "bias": -0.4346550250736,
          "preparedBiasChange": -0.006954743690993871,
          "delta": 0.012867363867238819,
          "output": 0
        },
        {
          "weights": [
            0.005689460903261556,
            -0.09537052868184193,
            -0.14449764736671822,
            -0.07004551185297106,
            -0.05317732240221337,
            -0.10843389730827599
          ],
          "preparedWeightChanges": [
            0,
            0,
            0,
            0,
            0,
            0
          ],
          "bias": 0.4041802569127267,
          "preparedBiasChange": -0.012398749145486013,
          "delta": 0.03338298737023403,
          "output": 0
        },
        {
          "weights": [
            0.20575377156760255,
            -0.1436551014863211,
            0.04128880300153459,
            0.14953460330121898,
            -0.18219601289937087,
            0.04964364822937345
          ],
          "preparedWeightChanges": [
            0,
            0,
            0,
            0,
            0,
            0
          ],
          "bias": -0.526196467227357,
          "preparedBiasChange": -0.018879642216932894,
          "delta": 0.038796643981137455,
          "output": 0
        },
        {
          "weights": [
            0.13327534537914926,
            0.19509884596108407,
            -0.03781896144515787,
            0.19813415917946686,
            0.05095615903891443,
            -0.05278069772887076
          ],
          "preparedWeightChanges": [
            0,
            0,
            0,
            0,
            0,
            0
          ],
          "bias": 0.7958995364387396,
          "preparedBiasChange": 0.01896435097702344,
          "delta": -0.029111262370646443,
          "output": 0
        }
      ]
    },
    {
      "neurons": [
        {
          "weights": [
            0.21928753283307306,
            -0.12888282066159082,
            0.05295475213926043,
            -0.01362929901277149,
            0.16412550579482948,
            0.14579203137931973,
            -0.12702724844078872
          ],
          "preparedWeightChanges": [
            0,
            0,
            0,
            0,
            0,
            0,
            0
          ],
          "bias": 0.6198805301471415,
          "preparedBiasChange": -0.011084466008080562,
          "delta": 0.02195411622087439,
          "output": 0
        },
        {
          "weights": [
            0.16080335756335562,
            -0.00030140473987042005,
            -0.17305424596325225,
            0.06203871793674243,
            0.20957023997771101,
            0.19738290922128732,
            -0.04431374873701191
          ],
          "preparedWeightChanges": [
            0,
            0,
            0,
            0,
            0,
            0,
            0
          ],
          "bias": 0.7993160533046143,
          "preparedBiasChange": -0.02063318658391836,
          "delta": 0.0599216528428836,
          "output": 0
        },
        {
          "weights": [
            0.008686949153750623,
            -0.18091458614492537,
            -0.2117994278491472,
            0.15490996157979126,
            0.12361781223379903,
            -0.056557954897432566,
            0.08948988390131385
          ],
          "preparedWeightChanges": [
            0,
            0,
            0,
            0,
            0,
            0,
            0
          ],
          "bias": -0.17995068845104806,
          "preparedBiasChange": 0.02517366581894316,
          "delta": -0.0072847841784630185,
          "output": 0
        },
        {
          "weights": [
            -0.04060661876136745,
            -0.12115305376758476,
            -0.05213897782477503,
            -0.19061728377855255,
            -0.1928208861233764,
            -0.18463457163173452,
            0.2142716683280988
          ],
          "preparedWeightChanges": [
            0,
            0,
            0,
            0,
            0,
            0,
            0
          ],
          "bias": 0.06214302268033952,
          "preparedBiasChange": 0.045035999497954234,
          "delta": -0.0787927865215818,
          "output": 0
        },
        {
          "weights": [
            -0.02571609582552503,
            0.19960771312453213,
            0.036401928070188494,
            -0.2164877080202511,
            0.05254760049402135,
            0.19358378715980046,
            0.03269717180295717
          ],
          "preparedWeightChanges": [
            0,
            0,
            0,
            0,
            0,
            0,
            0
          ],
          "bias": -0.635446183104642,
          "preparedBiasChange": -0.005119442625543556,
          "delta": 0.02888614242224051,
          "output": 0
        },
        {
          "weights": [
            -0.2476402241725662,
            0.2422736193948768,
            -0.05445845904967675,
            -0.20840979225859502,
            0.07258884926447123,
            0.005765269163886699,
            0.09007340825166249
          ],
          "preparedWeightChanges": [
            0,
            0,
            0,
            0,
            0,
            0,
            0
          ],
          "bias": -0.03221465463051332,
          "preparedBiasChange": 0.0040272294133625285,
          "delta": 0.006860214570936343,
          "output": 0
        },
        {
          "weights": [
            -0.07241090588383883,
            -0.01628803031811865,
            0.20349408940109148,
            0.1290487453243922,
            0.012755586888061665,
            0.04230934069133796,
            -0.21489563047182542
          ],
          "preparedWeightChanges": [
            0,
            0,
            0,
            0,
            0,
            0,
            0
          ],
          "bias": 0.9727243702137717,
          "preparedBiasChange": -0.013716245243783754,
          "delta": 0.02803848172008747,
          "output": 0
        },
        {
          "weights": [
            0.03162729543709536,
            -0.20097741691906817,
            -0.22302268025140404,
            0.03527855956241421,
            -0.05206899079590524,
            -0.18640996466223614,
            0.1563010382961021
          ],
          "preparedWeightChanges": [
            0,
            0,
            0,
            0,
            0,
            0,
            0
          ],
          "bias": 0.10384680093505201,
          "preparedBiasChange": 0.010213269207442607,
          "delta": -0.010679601986847177,
          "output": 0
        }
      ]
    },
    {
      "neurons": [
        {
          "weights": [
            0.03542692693203081,
            0.22751550165820655,
            -0.16224518623773249,
            -0.24003747314682114,
            -0.08901901884890115,
            -0.0778260407167608,
            0.1588392757851813,
            0.06510316199395022
          ],
          "preparedWeightChanges": [
            0,
            0,
            0,
            0,
            0,
            0,
            0,
            0
          ],
          "bias": 0.29896471585158657,
          "preparedBiasChange": -0.0781700515094389,
          "delta": 0.13835202570048427,
          "output": 0
        },
        {
          "weights": [
            0.04242650083844851,
            0.15255018575235746,
            0.13134419283892224,
            0.24790050415224418,
            0.047899676159908866,
            0.18134331979385732,
            0.20362811207474585,
            0.03877353798075278
          ],
          "preparedWeightChanges": [
            0,
            0,
            0,
            0,
            0,
            0,
            0,
            0
          ],
          "bias": 0.126706852544976,
          "preparedBiasChange": 0.03717191602118132,
          "delta": -0.02419386849563398,
          "output": 0
        },
        {
          "weights": [
            0.13179362210528628,
            0.07346714419474226,
            -0.138128661032826,
            -0.1647770769962934,
            0.08667466549047953,
            0.18197456348313695,
            0.16450334359635754,
            -0.23944355966031716
          ],
          "preparedWeightChanges": [
            0,
            0,
            0,
            0,
            0,
            0,
            0,
            0
          ],
          "bias": -0.2940757191419329,
          "preparedBiasChange": -0.0800592787889487,
          "delta": 0.14756640389040815,
          "output": 0
        },
        {
          "weights": [
            0.003525017413089526,
            0.16660646741120444,
            0.24741861224054296,
            -0.20215693789169048,
            0.18876974048966993,
            -0.1640274189012253,
            0.10010361175523308,
            0.006163280809374172
          ],
          "preparedWeightChanges": [
            0,
            0,
            0,
            0,
            0,
            0,
            0,
            0
          ],
          "bias": -0.06517992645347098,
          "preparedBiasChange": -0.023162429349415904,
          "delta": 0.07542835681810524,
          "output": 0
        },
        {
          "weights": [
            -0.08198954459838081,
            0.0801108813984836,
            0.08714803091117557,
            -0.24458486516707803,
            0.07487269389670004,
            -0.11160907259285874,
            -0.15733949672772524,
            0.2203290860496131
          ],
          "preparedWeightChanges": [
            0,
            0,
            0,
            0,
            0,
            0,
            0,
            0
          ],
          "bias": 0.32828058579843367,
          "preparedBiasChange": 0.0009332298817950066,
          "delta": 0.03621998607199068,
          "output": 0
        },
        {
          "weights": [
            -0.09623982331074765,
            0.027944983578261473,
            0.2337276192771865,
            -0.1323207367129255,
            -0.17665079232614989,
            0.24650502158166143,
            0.24819899909114418,
            -0.06820358676752242
          ],
          "preparedWeightChanges": [
            0,
            0,
            0,
            0,
            0,
            0,
            0,
            0
          ],
          "bias": 0.5244235611057424,
          "preparedBiasChange": 0.0107941958599002,
          "delta": 0.01379657476562909,
          "output": 0
        },
        {
          "weights": [
            -0.016433409772083823,
            -0.049795996071675785,
            -0.10915916383227295,
            -0.09421974972086947,
            -0.15454081674317866,
            -0.09957545918858399,
            0.17028896274058564,
            -0.09468574162790819
          ],
          "preparedWeightChanges": [
            0,
            0,
            0,
            0,
            0,
            0,
            0,
            0
          ],
          "bias": -0.6103461110081467,
          "preparedBiasChange": 0.04949518613315563,
          "delta": -0.09181647209860233,
          "output": 0
        },
        {
          "weights": [
            0.038969629811574535,
            -0.005416561269860981,
            0.21378044526268747,
            0.04537161174014753,
            -0.1022031076029889,
            -0.20826360464946536,
            -0.16373002781240736,
            0.03561765667312672
          ],
          "preparedWeightChanges": [
            0,
            0,
            0,
            0,
            0,
            0,
            0,
            0
          ],
          "bias": 0.5908725246796986,
          "preparedBiasChange": -0.0063788001116468224,
          "delta": 0.008687875068976034,
          "output": 0
        },
        {
          "weights": [
            0.11258397920177504,
            0.12637848727236434,
            0.24859445029804222,
            0.22348041156003273,
            0.24256241973143183,
            0.11634557944086638,
            -0.20778459145584358,
            0.010743166907105195
          ],
          "preparedWeightChanges": [
            0,
            0,
            0,
            0,
            0,
            0,
            0,
            0
          ],
          "bias": 0.7877698655646966,
          "preparedBiasChange": 0.025918744752162954,
          "delta": 0.007239149462604497,
          "output": 0
        }
      ]
    },
    {
      "neurons": [
        {
          "weights": [
            0.018157377265467012,
            -0.11415424587398498,
            0.09325725973735438,
            -0.24908640934111848,
            -0.2003559369828347,
            0.006973327257192408,
            -0.24686131300258513,
            -0.1334629784726831,
            -0.19404072311895001
          ],
          "preparedWeightChanges": [
            0,
            0,
            0,
            0,
            0,
            0,
            0,
            0,
            0
          ],
          "bias": -0.07279656111848509,
          "preparedBiasChange": -0.10626239935365697,
          "delta": 0.10997525118769476,
          "output": 0
        },
        {
          "weights": [
            -0.23776979487751135,
            -0.015348301858337743,
            -0.06327650990024047,
            -0.1648738279076637,
            -0.0804415644753918,
            -0.010105767175604491,
            0.05369087346070023,
            -0.02425435268052592,
            0.17597870967629303
          ],
          "preparedWeightChanges": [
            0,
            0,
            0,
            0,
            0,
            0,
            0,
            0,
            0
          ],
          "bias": -0.063655017873634,
          "preparedBiasChange": 0.12437833538948001,
          "delta": -0.21133966890969424,
          "output": 0
        },
        {
          "weights": [
            -0.11985190881874966,
            0.19199122392665185,
            -0.21859070890051813,
            0.037731551000723396,
            -0.21215763500060775,
            -0.11438498011063086,
            0.055417925960113246,
            -0.1657605561966824,
            0.010086178667883472
          ],
          "preparedWeightChanges": [
            0,
            0,
            0,
            0,
            0,
            0,
            0,
            0,
            0
          ],
          "bias": 0.5074268211398479,
          "preparedBiasChange": 0.06227905587173312,
          "delta": -0.11588249642135887,
          "output": 0
        },
        {
          "weights": [
            0.024495256726860648,
            -0.1364351582650259,
            0.0847160163497161,
            0.16781308404999462,
            -0.09786841452488138,
            -0.2305314957539232,
            -0.1947605651546086,
            0.03805603915269301,
            -0.055060624287026294
          ],
          "preparedWeightChanges": [
            0,
            0,
            0,
            0,
            0,
            0,
            0,
            0,
            0
          ],
          "bias": -0.24503716221601107,
          "preparedBiasChange": -0.11593224701947633,
          "delta": 0.1714773878369772,
          "output": 0
        },
        {
          "weights": [
            0.0422329247427326,
            -0.21874012913030577,
            0.23577711846948468,
            0.13203746074905498,
            0.02338745155063804,
            -0.025989041559393078,
            -0.07413951089798451,
            0.04125231518002803,
            0.07903601477343403
          ],
          "preparedWeightChanges": [
            0,
            0,
            0,
            0,
            0,
            0,
            0,
            0,
            0
          ],
          "bias": -0.3100244710763757,
          "preparedBiasChange": -0.11580569187677604,
          "delta": 0.2154004564196143,
          "output": 0
        },
        {
          "weights": [
            -0.06112845372926837,
            -0.1094000678786077,
            -0.13376330113213664,
            0.15235460195800038,
            -0.14753663441982895,
            0.07616615333881516,
            -0.14556353697346688,
            -0.19447429126336904,
            0.21307122565948927
          ],
          "preparedWeightChanges": [
            0,
            0,
            0,
            0,
            0,
            0,
            0,
            0,
            0
          ],
          "bias": -0.08706934541001246,
          "preparedBiasChange": 0.041549624141556045,
          "delta": -0.02679417729536286,
          "output": 0
        },
        {
          "weights": [
            0.2015554012970791,
            0.16889924319409733,
            0.1064508428594334,
            0.09831769268415763,
            0.17973725471167695,
            0.14866536338751452,
            0.14993568179194616,
            0.018910406049764905,
            0.18299458661721768
          ],
          "preparedWeightChanges": [
            0,
            0,
            0,
            0,
            0,
            0,
            0,
            0,
            0
          ],
          "bias": 0.5703649454404411,
          "preparedBiasChange": -0.05319600246366824,
          "delta": 0.11516795273747238,
          "output": 0
        },
        {
          "weights": [
            -0.06534520202099589,
            -0.2343651656919928,
            -0.2191937283934996,
            -0.030828408329202056,
            -0.1838443597936278,
            -0.1511117796884439,
            0.20621410545716717,
            -0.10062816964957313,
            -0.23565590054991464
          ],
          "preparedWeightChanges": [
            0,
            0,
            0,
            0,
            0,
            0,
            0,
            0,
            0
          ],
          "bias": -0.34177239619790295,
          "preparedBiasChange": -0.03298651015672371,
          "delta": -0.007929318794515902,
          "output": 0
        },
        {
          "weights": [
            0.20975453078735368,
            -0.23583438921991473,
            0.005203429029883577,
            -0.22350000006775372,
            -0.23122996207383925,
            -0.11610467539453165,
            0.24732814286711075,
            0.18236141439171571,
            0.06534971846982357
          ],
          "preparedWeightChanges": [
            0,
            0,
            0,
            0,
            0,
            0,
            0,
            0,
            0
          ],
          "bias": 0.28939734469252887,
          "preparedBiasChange": -0.018908796936724256,
          "delta": -0.005188556469133965,
          "output": 0
        },
        {
          "weights": [
            0.16503204121954368,
            0.24971372610876047,
            0.07498481349320374,
            0.030910332585177558,
            0.00525171670841601,
            0.12333368154863533,
            -0.0751909719897392,
            -0.11254057421467295,
            0.20230020603737803
          ],
          "preparedWeightChanges": [
            0,
            0,
            0,
            0,
            0,
            0,
            0,
            0,
            0
          ],
          "bias": 0.15102310861147375,
          "preparedBiasChange": -0.09937358292563633,
          "delta": 0.2098891344131087,
          "output": 0
        }
      ]
    },
    {
      "neurons": [
        {
          "weights": [
            0.07407527664866076,
            0.1569500830522506,
            0.10825772856281035,
            -0.07105391650509738,
            -0.20106861924336694,
            -0.07676328803727556,
            -0.14020633948510808,
            0.14706510719706545,
            0.08619896175162817,
            -0.24642485473138506
          ],
          "preparedWeightChanges": [
            0,
            0,
            0,
            0,
            0,
            0,
            0,
            0,
            0,
            0
          ],
          "bias": 0.9985549896517142,
          "preparedBiasChange": 0.06958724799427482,
          "delta": -0.42753561921730643,
          "output": 0
        },
        {
          "weights": [
            0.20506463267610625,
            -0.2088183907134544,
            -0.10076018089929603,
            0.20427451234044253,
            0.18738979051699384,
            -0.08630418583578625,
            0.07995084292718713,
            0.07954765475799686,
            0.04584193010620863,
            0.15133722052040383
          ],
          "preparedWeightChanges": [
            0,
            0,
            0,
            0,
            0,
            0,
            0,
            0,
            0,
            0
          ],
          "bias": 0.2835026072497687,
          "preparedBiasChange": -0.5433267187327809,
          "delta": 0.6907337877326588,
          "output": 0
        }
      ]
    }
  ],
  "activationFunction": {},
  "activationFunctionType": "tanh",
  "epochs": 20,
  "momentum": 0.9,
  "batchSize": 20,
  "learningRate": 0.1,
  "numberOfInputs": 3,
  "numberOfOutputs": 2
}