{
  "layers": [
    {
      "neurons": [
        {
          "weights": [
            -76.71575627367895,
            -33.43688616408082,
            110.36615821666705
          ],
          "preparedWeightChanges": [
            0.0007544914163667678,
            0.0011189872842582058,
            0.0020423781644490252
          ],
          "lastWeightChanges": [
            0.0007544914163667678,
            0.0011189872842582058,
            0.0020423781644490252
          ],
          "bias": -0.6631320705074105,
          "preparedBiasChange": 0.003915856865073998,
          "lastBiasChange": 0.003915856865073998,
          "delta": -0.009986979483021532,
          "output": 0
        },
        {
          "weights": [
            -102.63595197264466,
            -42.42439326539903,
            144.72045345494124
          ],
          "preparedWeightChanges": [
            -0.0012470858199100877,
            -0.0012877462109562143,
            -0.0011101308167309185
          ],
          "lastWeightChanges": [
            -0.0012470858199100877,
            -0.0012877462109562143,
            -0.0011101308167309185
          ],
          "bias": 0.45935201495292416,
          "preparedBiasChange": -0.0036449628475972206,
          "lastBiasChange": -0.0036449628475972206,
          "delta": 0.0012942237737575864,
          "output": 0
        },
        {
          "weights": [
            322.3174717062106,
            138.89327642059985,
            -461.1737752312093
          ],
          "preparedWeightChanges": [
            -0.001393849022234312,
            -0.0025089401731286697,
            -0.005554480207740088
          ],
          "lastWeightChanges": [
            -0.001393849022234312,
            -0.0025089401731286697,
            -0.005554480207740088
          ],
          "bias": 0.6144911738147084,
          "preparedBiasChange": -0.00945726940310307,
          "lastBiasChange": -0.00945726940310307,
          "delta": 0.03041121909778677,
          "output": 0
        },
        {
          "weights": [
            834.4791549380121,
            354.259173537674,
            -1188.8219519733018
          ],
          "preparedWeightChanges": [
            0.0007931545936669939,
            -0.0010646952941111595,
            -0.006890640749953389
          ],
          "lastWeightChanges": [
            0.0007931545936669939,
            -0.0010646952941111595,
            -0.006890640749953389
          ],
          "bias": -0.851692499863839,
          "preparedBiasChange": -0.007162181450397553,
          "lastBiasChange": -0.007162181450397553,
          "delta": 0.05018541295579458,
          "output": 0
        },
        {
          "weights": [
            419.32051260303245,
            177.08935155306935,
            -596.5965475526806
          ],
          "preparedWeightChanges": [
            0.0011375536871519034,
            0.00037683415882419776,
            -0.002204802838568756
          ],
          "lastWeightChanges": [
            0.0011375536871519034,
            0.00037683415882419776,
            -0.002204802838568756
          ],
          "bias": 0.9799042714196595,
          "preparedBiasChange": -0.0006904149925926551,
          "lastBiasChange": -0.0006904149925926551,
          "delta": 0.020423123988829676,
          "output": 0
        }
      ]
    },
    {
      "neurons": [
        {
          "weights": [
            0.0699959266092609,
            -0.06088681184262354,
            -0.17240348384827536,
            -0.1450443418673446,
            -0.02229257336458776
          ],
          "preparedWeightChanges": [
            0,
            0,
            0,
            0,
            0
          ],
          "lastWeightChanges": [
            0,
            0,
            0,
            0,
            0
          ],
          "bias": 0.924531360681907,
          "preparedBiasChange": 0.05379336233158084,
          "lastBiasChange": 0.05379336233158084,
          "delta": -0.20928966223612622,
          "output": 0
        },
        {
          "weights": [
            0.04828090770090043,
            -0.11855505703415492,
            -0.05872527687285342,
            0.20533617164722467,
            0.16317348899933204
          ],
          "preparedWeightChanges": [
            0,
            0,
            0,
            0,
            0
          ],
          "lastWeightChanges": [
            0,
            0,
            0,
            0,
            0
          ],
          "bias": 0.3782889589034161,
          "preparedBiasChange": 0.0031180155969701955,
          "lastBiasChange": 0.0031180155969701955,
          "delta": 0.0965691114139598,
          "output": 0
        }
      ]
    }
  ],
  "activationFunctionType": "tanh",
  "epochs": 100,
  "momentum": 0.9,
  "batchSize": 10,
  "learningRate": 0.1,
  "numberOfInputs": 3,
  "numberOfOutputs": 2
}