{
  "layers": [
    {
      "neurons": [
        {
          "weights": [
            19.12180714067655,
            8.396542370273963,
            -27.546158049091876
          ],
          "preparedWeightChanges": [
            0.0019831457166610642,
            0.0014757200534094997,
            -0.00047689825167121866
          ],
          "lastWeightChanges": [
            0.0019831457166610642,
            0.0014757200534094997,
            -0.00047689825167121866
          ],
          "bias": 0.6739529561630444,
          "preparedBiasChange": 0.0029819675183993463,
          "lastBiasChange": 0.0029819675183993463,
          "delta": 0.009106768844585491,
          "output": 0
        },
        {
          "weights": [
            -7.252903695811916,
            -3.025026763449275,
            10.00166812499237
          ],
          "preparedWeightChanges": [
            -0.0007176326726891668,
            -0.000536011033430205,
            0.0001642037692477687
          ],
          "lastWeightChanges": [
            -0.0007176326726891668,
            -0.000536011033430205,
            0.0001642037692477687
          ],
          "bias": 0.21775337674705672,
          "preparedBiasChange": -0.0010894399368716029,
          "lastBiasChange": -0.0010894399368716029,
          "delta": -0.003271303473694492,
          "output": 0
        },
        {
          "weights": [
            -9.497311050160556,
            -4.046266762509997,
            13.872734703674002
          ],
          "preparedWeightChanges": [
            -0.0009738977705606021,
            -0.0007265921998675829,
            0.00022630512837853021
          ],
          "lastWeightChanges": [
            -0.0009738977705606021,
            -0.0007265921998675829,
            0.00022630512837853021
          ],
          "bias": 0.013903931232858846,
          "preparedBiasChange": -0.0014741848420496543,
          "lastBiasChange": -0.0014741848420496543,
          "delta": -0.004449465587271332,
          "output": 0
        },
        {
          "weights": [
            -12.852977747329442,
            -5.852641828676516,
            18.41104323165228
          ],
          "preparedWeightChanges": [
            -0.001305508696146776,
            -0.000974258781097348,
            0.00030226075279078316
          ],
          "lastWeightChanges": [
            -0.001305508696146776,
            -0.000974258781097348,
            0.00030226075279078316
          ],
          "bias": 0.6638326020539187,
          "preparedBiasChange": -0.0019775067244533415,
          "lastBiasChange": -0.0019775067244533415,
          "delta": -0.005961329248280925,
          "output": 0
        },
        {
          "weights": [
            -7.061783167395046,
            -3.101584907807534,
            10.372043834622863
          ],
          "preparedWeightChanges": [
            -0.0007329438515288693,
            -0.000547070695230952,
            0.00016928397990942216
          ],
          "lastWeightChanges": [
            -0.0007329438515288693,
            -0.000547070695230952,
            0.00016928397990942216
          ],
          "bias": -1.0179406561300584,
          "preparedBiasChange": -0.0011107305668503994,
          "lastBiasChange": -0.0011107305668503994,
          "delta": -0.0033456441403745254,
          "output": 0
        }
      ]
    },
    {
      "neurons": [
        {
          "weights": [
            -0.0996547105487691,
            0.13985064061817276,
            0.14682724159063176,
            0.21047494116261367,
            0.12328041758075375
          ],
          "preparedWeightChanges": [
            0,
            0,
            0,
            0,
            0
          ],
          "lastWeightChanges": [
            0,
            0,
            0,
            0,
            0
          ],
          "bias": -0.2917879415268854,
          "preparedBiasChange": -0.03420776488337429,
          "lastBiasChange": -0.03420776488337429,
          "delta": -0.10292797266463119,
          "output": 0
        },
        {
          "weights": [
            0.2373120887145922,
            0.011873204615839406,
            -0.024350112897506965,
            -0.01978271630116865,
            -0.006289431711793608
          ],
          "preparedWeightChanges": [
            0,
            0,
            0,
            0,
            0
          ],
          "lastWeightChanges": [
            0,
            0,
            0,
            0,
            0
          ],
          "bias": -0.09287571541343448,
          "preparedBiasChange": 0.03589747665939509,
          "lastBiasChange": 0.03589747665939509,
          "delta": 0.11027595853555588,
          "output": 0
        }
      ]
    }
  ],
  "activationFunctionType": "sigmoid",
  "epochs": 20,
  "momentum": 0.9,
  "batchSize": 20,
  "learningRate": 0.1,
  "numberOfInputs": 3,
  "numberOfOutputs": 2
}